{
  "layers": [
    5,
    1
  ],
  "weights": [
    -0.5058845703396697,
    19.196317188289765,
    12.053283138819742,
    -38.867008436607165,
    -2.4296836695485724,
    -2.9487315876759568,
    -0.7077184313980052,
    -11.257735912359086,
    5.908941546020223,
    -0.9431005437510068,
    4.484573582256525,
    20.9735563278271,
    12.30175854782889,
    0.6836734600814541,
    10.605363763461888,
    -2.524333777573453,
    22.008156766029952,
    -16.9707992827727,
    13.769339120979343,
    -20.09636241935186,
    -1.4512737248246763,
    -2.7676043866201256,
    -19.587517397776075,
    -31.89401159757245,
    9.74713644469277,
    -3.882054512693816,
    34.442530199299966,
    -7.897769005879384,
    -28.59856551102123,
    -3.522756018259583,
    11.106986057726996,
    19.271045836574217,
    -2.2276523481933084,
    -1.2871280824609106,
    3.7516751484420623,
    -30.922228148283367,
    -2.2787709387837864,
    -1.966966358713114,
    -16.960418090693675,
    -0.3317134190896316,
    5.128653992669876,
    22.204197780266433,
    -2.706212244637507,
    15.869367242852295,
    -0.5547554438513701,
    4.409729223206268,
    -11.588125047973882,
    -7.948635033952885,
    -3.9977616069529858,
    -1.8923601221450965,
    12.788006397850923,
    1.4672882263311249,
    -0.7839356875273084,
    -14.789023686448965,
    -4.513904167018136,
    -12.440563178126984,
    5.3887836558645015,
    -2.437097154500024,
    17.876574977518363,
    9.823933416982987,
    40.961740942959636,
    -41.965259921506245,
    38.36237007513424,
    30.93601190936999,
    -35.760617574226465,
    -32.52399171738385
  ]
}