{
  "layers": [
    5,
    1
  ],
  "weights": [
    -7.22449868303447,
    10.762140741018422,
    21.46079998948664,
    -22.305989647299928,
    35.728952614091135,
    -29.393735701867502,
    -8.146753526707394,
    -42.33536394914426,
    15.841447504635438,
    -0.5415158670999839,
    -7.891031264577194,
    24.305695088320753,
    15.17840874153058,
    -11.111857798986673,
    16.949736223785855,
    6.406063580767046,
    22.761066944728086,
    -19.489615285336292,
    16.651344716483916,
    -18.77250127975257,
    4.151928395220964,
    -4.225559845171909,
    -19.84411661865462,
    -43.652441610557986,
    24.682375927820456,
    13.815851552954678,
    39.8695278653073,
    -35.73425643198925,
    14.9673149204336,
    -33.731139555627266,
    27.617827755976382,
    -0.5864232432940877,
    -11.137753328032636,
    4.686840117820004,
    -20.304824768666464,
    -55.85913675610386,
    19.768061539191283,
    3.0112280929974937,
    -11.132658565652257,
    5.342521530608106,
    8.022072389830004,
    7.216598218971276,
    22.223849068128523,
    -24.902051556867185,
    0.5893200211109763,
    -29.311759953847496,
    -21.457408330370004,
    -42.340414956016666,
    -2.9281893447348764,
    2.4767371791519253,
    5.506514521980671,
    -22.932218314342023,
    8.747621487605583,
    8.026685334639776,
    -3.080810682139159,
    -15.450055440857422,
    3.9422928776639607,
    3.654587657782573,
    1.4850535804381662,
    13.971473757671344,
    6.003871693300766,
    -42.10767611160933,
    44.38022623759417,
    44.866137147513086,
    26.905142165807746,
    -33.89501518545711
  ]
}