{
  "layers": [
    5,
    1
  ],
  "weights": [
    14.795385391717296,
    1.8066251500748463,
    18.766302222931415,
    -13.519117549072632,
    -2.033298963565246,
    -4.872547074839315,
    16.608374960751554,
    2.1473264132877192,
    -5.527177031255727,
    -1.6104961144612717,
    -15.676129615861235,
    -33.58344061945252,
    -14.406351059728815,
    3.5314386581938577,
    19.890413564828346,
    5.109752031014576,
    -13.346851398500739,
    5.26114655321018,
    -16.08869530882339,
    -7.858144104160787,
    22.331310194324548,
    27.024488020005744,
    29.30153908947401,
    6.780571686520527,
    -10.745810883557457,
    5.90465950566953,
    7.6012759198131015,
    -23.326309887645632,
    -6.115249471876666,
    30.154825272499227,
    -11.69056401234648,
    -10.67122134546505,
    2.22051475792794,
    10.297779527795344,
    -5.489414755470742,
    11.040400433982251,
    -3.520242997622852,
    5.510069440575509,
    11.057027011568671,
    -19.65921263337033,
    22.778658655923234,
    -7.358125305778446,
    -3.946882726984765,
    -35.50359746456371,
    12.094644544977774,
    7.806076471018881,
    0.16735466031550103,
    17.282267831400567,
    5.6707492234676105,
    3.3231579424737907,
    -22.34606488569643,
    15.538603530741184,
    34.47484166563305,
    -3.6644915223587233,
    5.955160082098439,
    -31.373492081069234,
    0.7089052218132295,
    -12.079006494130379,
    -35.96777657640477,
    -19.023990394150154,
    5.08679600576197,
    46.480768067315005,
    33.283352240686085,
    -42.682338071578386,
    -47.61411257083915,
    36.395937336586925
  ]
}