{
  "layers": [
    5,
    1
  ],
  "weights": [
    9.990712128334481,
    4.640619573024395,
    9.20959030609231,
    -7.896320210005817,
    18.159838402448482,
    -13.032308895555596,
    11.145091169798622,
    -12.214957923128793,
    -0.0960503388818359,
    -1.6200884850270891,
    -13.520620627110517,
    -27.39354258435889,
    -7.357990913694208,
    9.841196082871049,
    -24.451632717643765,
    7.256208671209831,
    16.05515066293916,
    -12.65050727951562,
    -8.092842475752326,
    -15.811962793594553,
    -2.291566704196384,
    6.73297282815538,
    8.937167152919269,
    23.522968408131316,
    -2.4417276424784227,
    -10.347117405794386,
    -9.777761471000035,
    -5.97844257246824,
    1.720858762236517,
    27.072745546201148,
    -2.6785810557378698,
    18.408262470179242,
    3.0642631064641632,
    0.7857887883530795,
    -6.851059949402613,
    -9.85088222054577,
    -17.17634186323452,
    6.93078633857834,
    24.79229806298157,
    -15.892805744287209,
    20.273440525430516,
    3.0211247259302665,
    -19.101592525430593,
    -20.589358293089045,
    19.988914963457436,
    -9.717440203118654,
    -7.2767267414899175,
    26.293922241893405,
    -1.3370102166549591,
    9.31779274972006,
    16.552303672400946,
    -35.055642083218856,
    -1.6574593496198178,
    -0.8439400334068217,
    -1.59282756021477,
    -6.725742654596144,
    4.415046884649557,
    -1.5382575396728226,
    10.22741421496003,
    19.315037714763,
    46.421996961315,
    51.59512123633036,
    -20.495588434105734,
    -22.182591721686173,
    -36.50078116722123,
    -36.291119249992214
  ]
}