{
  "layers": [
    5,
    1
  ],
  "weights": [
    7.156928470799529,
    0.14536795426331275,
    -21.58159784191201,
    -0.7071781704299148,
    -6.579740915631393,
    -8.150314273021012,
    8.35091606460842,
    19.65557402660079,
    -7.544487602790518,
    -9.009375194146358,
    22.183422301248456,
    -7.9914360331438905,
    -2.9819252807671925,
    -6.603554899359014,
    -7.01703992727786,
    -3.1185214284139073,
    -4.735898481782482,
    -4.498908556686194,
    -3.2990803482261164,
    -6.916613684092143,
    4.675326256818837,
    -3.9592848120733217,
    2.0172428613266944,
    12.980572977143634,
    9.348035808203118,
    2.1629118806399616,
    14.4341299435532,
    -4.4317939859617015,
    10.311985865862908,
    -18.609986345191565,
    10.027625525457099,
    -11.639966473193805,
    2.3249217158453708,
    -0.31165243335494364,
    -15.277513499778554,
    -24.640707565234145,
    4.904901890117822,
    -8.947217953875906,
    4.580982143434846,
    -4.330206966034953,
    -2.3956581515805815,
    -12.945492646074586,
    5.452897557046845,
    -4.029327737670157,
    6.173585150680984,
    -3.783625455731404,
    3.6443918563772324,
    7.966259871489314,
    -10.369916250973048,
    -0.8218082184878195,
    1.56905371449669,
    1.2099041526629537,
    -6.956468088300047,
    -13.282879524964116,
    -11.538485852489682,
    13.687986301758135,
    3.3868543982883605,
    0.8577125993838488,
    21.576620742803915,
    25.857376888624326,
    9.14090666282819,
    23.785361695775553,
    -17.186055128954386,
    42.11130224415105,
    -20.905094699945035,
    -25.121998477106278
  ]
}