{
  "layers": [
    5,
    1
  ],
  "weights": [
    7.426801909595047,
    -3.2732687658659994,
    -11.184431873058381,
    4.070312045721789,
    -0.4213499127523567,
    -7.891508948082632,
    7.976372824112797,
    12.502257114299965,
    -10.903758433590138,
    -11.711320128043727,
    3.175429791894555,
    -11.539529801880612,
    -1.216234946005091,
    5.047060062839574,
    -4.713830287485868,
    4.574145154168292,
    6.788467714747579,
    9.112676618372127,
    -1.3093666003065758,
    1.8482211047383734,
    -7.857507131297021,
    -4.863704921173463,
    -1.3733666730156893,
    -9.910289587258234,
    -3.1064350495584283,
    -3.387825238183412,
    -2.74483811529743,
    7.475959021743348,
    -0.2668090070753044,
    -10.829546102486606,
    -3.431560209592,
    4.505550566026815,
    -0.8860900323048985,
    -15.116658530544456,
    13.557707201195104,
    10.151505263373888,
    -9.896770174499103,
    11.868478299436717,
    -13.910066858887452,
    -1.2975747768556305,
    -14.632452730439365,
    14.033508667356934,
    -11.013392239053525,
    12.020635008898505,
    -2.417618494838165,
    7.1508362193927555,
    9.257272424640295,
    27.15274962431826,
    -1.366121366382293,
    -11.40241362431586,
    -10.850991991174405,
    3.2977144657968918,
    -5.1597448430561625,
    3.276020728942092,
    -1.2666678930516184,
    7.805300003647402,
    2.617467891499588,
    10.821590662497458,
    6.239356102519355,
    9.201386699117167,
    26.254055020286472,
    26.423433749419235,
    27.819701205654457,
    -20.543660373385993,
    -27.89517005553082,
    -16.943863713696626
  ]
}