{
  "layers": [
    5,
    1
  ],
  "weights": [
    15.848178083036784,
    -7.831084742939506,
    23.522747070940916,
    -4.0557736420033,
    18.05751363779424,
    -20.76774716475309,
    17.587454404418516,
    -23.726873461655135,
    -0.5594240437656307,
    0.9023449478982317,
    -20.444807792218004,
    -41.67460246973879,
    5.591940054722432,
    -4.829213747588837,
    -22.42190428293363,
    3.6169957901787053,
    -2.692192696698251,
    -10.250688473561008,
    6.333932607249887,
    20.883531355300185,
    -17.689639702543282,
    -14.161145192615821,
    33.42418293518207,
    -0.6757489566300636,
    -1.2639146780176187,
    6.932788959956621,
    -2.3394016903840367,
    -31.4588572223499,
    -6.5067918967172,
    13.711889529713785,
    -1.4686548395003625,
    -3.7441102424492234,
    -14.390837135074664,
    10.823517607847373,
    1.8488144354069578,
    17.939805302811877,
    -13.390205837060211,
    -6.17579195977764,
    -7.188469369736167,
    6.316810471304613,
    -8.925417713999906,
    -14.815642834895343,
    -15.099298904990928,
    14.009352294763245,
    4.0080966976807995,
    -1.8578244812112206,
    43.008059357782514,
    35.98255461840997,
    7.037212616463315,
    -22.40011379018898,
    6.26999252561548,
    0.8784474317602826,
    -11.321154001937185,
    -12.23024226980006,
    7.684852577807596,
    -5.66963611677997,
    18.668026281250107,
    -2.1743696769857377,
    4.162270669664106,
    5.589682741976536,
    19.583037585981472,
    47.87686353160811,
    34.10736521398587,
    -19.03754856743793,
    -32.356527512982176,
    -27.119065271076888
  ]
}