{
  "layers": [
    5,
    1
  ],
  "weights": [
    2.8244058188945576,
    3.5697736639794773,
    9.092339200727208,
    -11.164633418087307,
    -7.962576668428174,
    -6.07524745622279,
    3.2202077869101142,
    -2.908611912508168,
    6.673092071949137,
    4.442873512715353,
    1.8537561744686477,
    1.8704329873287742,
    0.31275495646643275,
    -0.14305599994220144,
    0.449839332078421,
    -1.9188625538963422,
    -0.8276282904180583,
    -1.7407696613501444,
    0.29945784982435675,
    0.1896041435845764,
    1.9213316373525162,
    0.7259369007624047,
    0.36542090730714405,
    -0.023278021148026986,
    3.5218146555646657,
    -0.06490271631581226,
    -0.03373448701054538,
    -7.196371165355399,
    -7.868474022120574,
    -9.921694798800067,
    3.845165263483498,
    2.3503175683965396,
    5.977510951965152,
    2.380628037415968,
    -0.22859355695555472,
    3.3310526333582784,
    0.5604330459980958,
    -0.4159421166940263,
    0.02426072345934463,
    -2.0651629522167325,
    -1.2090748327026226,
    -2.8556418238310877,
    0.7538666070760622,
    0.831894841885312,
    2.651523123852543,
    0.7750034290887738,
    0.5690805565343067,
    -0.0019988785820741948,
    3.4927842488147114,
    1.6620651426408948,
    5.257667831096229,
    -9.832801076306737,
    -6.798442473365451,
    -9.31724644689591,
    3.6745109439707897,
    0.7149396187284623,
    8.639300404269346,
    3.801712622307563,
    1.7750701778108493,
    1.5856858311414146,
    12.107731602027258,
    -13.237243490550481,
    -2.0707860028667118,
    -11.481777379241983,
    -2.990702943127611,
    -11.795488947551748
  ]
}