{
  "layers": [
    5,
    1
  ],
  "weights": [
    -3.579067679291383,
    -2.0094200629320356,
    -4.16760517725349,
    9.092578193510128,
    7.5967597802012765,
    8.211341492141178,
    -4.024065010989132,
    0.1157495770645843,
    -5.92359321804643,
    -3.517947239874327,
    -1.3398130149836427,
    -2.362175785829966,
    1.5929974721547622,
    1.216292780018632,
    3.8440288067406008,
    -5.847707815422476,
    -3.765534622897925,
    -3.3749439865600332,
    1.8883239413217399,
    -1.3383364144788146,
    3.7055759029611552,
    2.6065198626977213,
    1.1936767855371466,
    0.8878626509733694,
    1.1987930675826257,
    2.228107284949396,
    5.809892668247862,
    -6.7214918625938695,
    -2.951287639364733,
    -2.134551798853352,
    1.2953869623063758,
    -2.6152455320668246,
    3.610595968834604,
    2.8443650290690474,
    1.795109162503239,
    0.3435657059056799,
    3.588323424334047,
    1.8914934713422304,
    4.567670754669397,
    -9.548100699974036,
    -7.499802638843293,
    -8.772890198533219,
    4.125105083623737,
    0.1020104385985325,
    6.920539296257583,
    3.945732805404257,
    2.088408276946349,
    2.298502684914797,
    2.4634326430422013,
    -1.4731291769339343,
    -1.915265302347407,
    -3.2427451624140513,
    -5.766760867350315,
    -8.646544991585188,
    2.5666843817308274,
    2.993849943682358,
    5.550615251646929,
    1.4211646684822496,
    1.4723536087467475,
    1.5228728968675709,
    4.647823877886936,
    12.329873398798316,
    -6.789879088236213,
    -8.107205360550356,
    -12.111072881229143,
    -10.698345085205805
  ]
}