{
  "layers": [
    5,
    1
  ],
  "weights": [
    0.4450768256900004,
    3.2720480413194837,
    -1.4475948388760858,
    -8.190093109538516,
    1.1283386338927064,
    6.328488875660494,
    0.489792393626763,
    5.29212812777801,
    7.847925836566597,
    4.259514135341184,
    3.004186317248745,
    -0.2535595023166017,
    2.0694411319698416,
    1.4546249165930538,
    1.7671281548645197,
    -10.12316246432199,
    -2.93330727185899,
    1.6694383750588142,
    2.4727037871758992,
    -2.981239956589743,
    2.990078221883414,
    2.2988231394399756,
    0.12991052688030708,
    -0.43711122357616455,
    0.9102082239469879,
    -1.486012534994044,
    1.3587968575269753,
    -1.3111516251516382,
    -0.9353062540721844,
    -4.922042577306821,
    0.7667656841637721,
    0.8308975093756513,
    7.099039093148577,
    3.958935557478688,
    4.043684824152251,
    -2.577191096645628,
    6.013044479515693,
    -4.873450351460751,
    5.584928401792305,
    -7.039683418237077,
    -7.186353613985078,
    -7.660845549587644,
    6.7428712102156245,
    -2.964159601664179,
    6.25141750991075,
    3.836877773702245,
    0.5729473981564975,
    0.8924747690809992,
    0.8933138965331546,
    2.236354553138903,
    2.0844276653259644,
    -0.29682986392834537,
    1.7627867608738026,
    7.128298648537639,
    1.0261511508270997,
    -4.746346370261237,
    -0.6315606944748119,
    -3.375233712454497,
    -2.6706163337704694,
    -0.7387614654359126,
    9.238112751855653,
    -12.412124259436697,
    -8.175251292725614,
    -6.741236811564783,
    -14.026567167914253,
    12.971942016309448
  ]
}